<?xml version="1.0"?>
<opencv_storage>
<stage11>
  <maxWeakCount>8</maxWeakCount>
  <stageThreshold>-5.5278325080871582e-01</stageThreshold>
  <weakClassifiers>
    <_>
      <internalNodes>
        0 -1 158729 4.8329461365938187e-02</internalNodes>
      <leafValues>
        -4.4493392109870911e-01 7.2820514440536499e-01</leafValues></_>
    <_>
      <internalNodes>
        0 -1 509715 1.2523857876658440e-03</internalNodes>
      <leafValues>
        4.0972092747688293e-01 -7.0600837469100952e-01</leafValues></_>
    <_>
      <internalNodes>
        0 -1 121273 2.2224187850952148e-03</internalNodes>
      <leafValues>
        -4.0224590897560120e-01 6.1750280857086182e-01</leafValues></_>
    <_>
      <internalNodes>
        0 -1 635980 1.4128745533525944e-04</internalNodes>
      <leafValues>
        -5.5819892883300781e-01 4.6787664294242859e-01</leafValues></_>
    <_>
      <internalNodes>
        0 -1 645951 2.7468521147966385e-04</internalNodes>
      <leafValues>
        2.9235520958900452e-01 -8.3984255790710449e-01</leafValues></_>
    <_>
      <internalNodes>
        0 -1 603875 2.1481742151081562e-03</internalNodes>
      <leafValues>
        -3.7324321269989014e-01 7.9301077127456665e-01</leafValues></_>
    <_>
      <internalNodes>
        0 -1 597313 -7.1629229933023453e-04</internalNodes>
      <leafValues>
        3.6645349860191345e-01 -7.4962955713272095e-01</leafValues></_>
    <_>
      <internalNodes>
        0 -1 302228 1.3450817205011845e-03</internalNodes>
      <leafValues>
        2.4731656908988953e-01 -9.3861317634582520e-01</leafValues></_></weakClassifiers></stage11>
</opencv_storage>
